Language model created by QuickLM on Sun Dec  4 03:14:33 EST 2016
Copyright (c) 1996-2010 Carnegie Mellon University and Alexander I. Rudnicky

The model is in standard ARPA format, designed by Doug Paul while he was at MITRE.

The code that was used to produce this language model is available in Open Source.
Please visit http://www.speech.cs.cmu.edu/tools/ for more information

The (fixed) discount mass is 0.5. The backoffs are computed using the ratio method.
This model based on a corpus of 20 sentences and 24 words

\data\
ngram 1=24
ngram 2=43
ngram 3=44

\1-grams:
-0.9685 </s> -0.3010
-0.9685 <s> -0.2410
-1.7924 BING -0.2516
-2.2695 BLOG -0.2516
-1.9685 BROWSER -0.2516
-1.4914 COMPUTER -0.2670
-2.2695 FILE -0.2987
-1.7924 GIT -0.2940
-1.3153 HEY -0.2516
-1.7924 HUB -0.2516
-2.2695 IN -0.2516
-2.2695 LAP -0.2987
-2.2695 LINKED -0.2987
-1.7924 MAIL -0.2516
-2.2695 MANAGER -0.2516
-2.2695 MOVIE -0.2516
-1.9685 MUSIC -0.2516
-2.2695 NEW -0.2987
-1.4244 OPEN -0.2645
-1.7924 PLAY -0.2940
-2.2695 SEARCH -0.2516
-2.2695 TAB -0.2516
-2.2695 TERMINAL -0.2516
-2.2695 TOP -0.2940

\2-grams:
-1.6021 <s> BING 0.0000
-1.6021 <s> BROWSER 0.0000
-1.6021 <s> FILE 0.0000
-0.6478 <s> HEY 0.0000
-1.6021 <s> NEW 0.0000
-0.8239 <s> OPEN 0.0000
-1.6021 <s> TERMINAL 0.0000
-0.3010 BING </s> -0.3010
-0.3010 BLOG </s> -0.3010
-0.3010 BROWSER </s> -0.3010
-1.0792 COMPUTER BING 0.0000
-1.0792 COMPUTER BROWSER 0.0000
-1.0792 COMPUTER GIT 0.0000
-1.0792 COMPUTER MAIL 0.0000
-0.7782 COMPUTER PLAY 0.0000
-0.3010 FILE MANAGER 0.0000
-0.3010 GIT HUB 0.0000
-1.2553 HEY BING 0.0000
-0.5563 HEY COMPUTER -0.0669
-1.2553 HEY GIT 0.0000
-1.2553 HEY LAP 0.0000
-1.2553 HEY OPEN -0.2341
-0.3010 HUB </s> -0.3010
-0.3010 IN </s> -0.3010
-0.3010 LAP TOP 0.0000
-0.3010 LINKED IN 0.0000
-0.3010 MAIL </s> -0.3010
-0.3010 MANAGER </s> -0.3010
-0.3010 MOVIE </s> -0.3010
-0.3010 MUSIC </s> -0.3010
-0.3010 NEW TAB 0.0000
-1.1461 OPEN BLOG 0.0000
-1.1461 OPEN COMPUTER -0.2632
-1.1461 OPEN GIT 0.0000
-1.1461 OPEN LINKED 0.0000
-0.8451 OPEN MAIL 0.0000
-1.1461 OPEN SEARCH 0.0000
-0.7782 PLAY MOVIE 0.0000
-0.4771 PLAY MUSIC 0.0000
-0.3010 SEARCH </s> -0.3010
-0.3010 TAB </s> -0.3010
-0.3010 TERMINAL </s> -0.3010
-0.3010 TOP PLAY -0.1249

\3-grams:
-0.3010 <s> BING </s>
-0.3010 <s> BROWSER </s>
-0.3010 <s> FILE MANAGER
-1.2553 <s> HEY BING
-0.5563 <s> HEY COMPUTER
-1.2553 <s> HEY GIT
-1.2553 <s> HEY LAP
-1.2553 <s> HEY OPEN
-0.3010 <s> NEW TAB
-1.0792 <s> OPEN BLOG
-1.0792 <s> OPEN COMPUTER
-1.0792 <s> OPEN GIT
-1.0792 <s> OPEN LINKED
-1.0792 <s> OPEN MAIL
-1.0792 <s> OPEN SEARCH
-0.3010 <s> TERMINAL </s>
-0.3010 COMPUTER BING </s>
-0.3010 COMPUTER BROWSER </s>
-0.3010 COMPUTER GIT HUB
-0.3010 COMPUTER MAIL </s>
-0.6021 COMPUTER PLAY MOVIE
-0.6021 COMPUTER PLAY MUSIC
-0.3010 FILE MANAGER </s>
-0.3010 GIT HUB </s>
-0.3010 HEY BING </s>
-1.0000 HEY COMPUTER BING
-1.0000 HEY COMPUTER BROWSER
-1.0000 HEY COMPUTER MAIL
-0.6990 HEY COMPUTER PLAY
-0.3010 HEY GIT HUB
-0.3010 HEY LAP TOP
-0.3010 HEY OPEN MAIL
-0.3010 LAP TOP PLAY
-0.3010 LINKED IN </s>
-0.3010 NEW TAB </s>
-0.3010 OPEN BLOG </s>
-0.3010 OPEN COMPUTER GIT
-0.3010 OPEN GIT HUB
-0.3010 OPEN LINKED IN
-0.3010 OPEN MAIL </s>
-0.3010 OPEN SEARCH </s>
-0.3010 PLAY MOVIE </s>
-0.3010 PLAY MUSIC </s>
-0.3010 TOP PLAY MUSIC

\end\