Language model created by QuickLM on Fri Dec  2 03:34:15 EST 2016
Copyright (c) 1996-2010 Carnegie Mellon University and Alexander I. Rudnicky

The model is in standard ARPA format, designed by Doug Paul while he was at MITRE.

The code that was used to produce this language model is available in Open Source.
Please visit http://www.speech.cs.cmu.edu/tools/ for more information

The (fixed) discount mass is 0.5. The backoffs are computed using the ratio method.
This model based on a corpus of 17 sentences and 19 words

\data\
ngram 1=19
ngram 2=35
ngram 3=35

\1-grams:
-0.9398 </s> -0.3010
-0.9398 <s> -0.2346
-1.6931 BING -0.2480
-2.1703 BLOG -0.2480
-1.8692 BROWSER -0.2480
-1.5682 COMPUTER -0.2675
-2.1703 FILE -0.2981
-1.6931 GIT -0.2921
-1.3921 HEY -0.2480
-1.6931 HUB -0.2480
-2.1703 IN -0.2480
-2.1703 LINKED -0.2981
-1.6931 MAIL -0.2480
-2.1703 MANAGER -0.2480
-2.1703 NEW -0.2981
-1.3252 OPEN -0.2611
-2.1703 SEARCH -0.2480
-2.1703 TAB -0.2480
-2.1703 TERMINAL -0.2480

\2-grams:
-1.5315 <s> BING 0.0000
-1.5315 <s> BROWSER 0.0000
-1.5315 <s> FILE 0.0000
-0.7533 <s> HEY 0.0000
-1.5315 <s> NEW 0.0000
-0.7533 <s> OPEN 0.0000
-1.5315 <s> TERMINAL 0.0000
-0.3010 BING </s> -0.3010
-0.3010 BLOG </s> -0.3010
-0.3010 BROWSER </s> -0.3010
-0.9031 COMPUTER BING 0.0000
-0.9031 COMPUTER BROWSER 0.0000
-0.9031 COMPUTER GIT 0.0000
-0.9031 COMPUTER MAIL 0.0000
-0.3010 FILE MANAGER 0.0000
-0.3010 GIT HUB 0.0000
-1.0792 HEY BING 0.0000
-0.6021 HEY COMPUTER -0.0969
-1.0792 HEY GIT 0.0000
-1.0792 HEY OPEN -0.2341
-0.3010 HUB </s> -0.3010
-0.3010 IN </s> -0.3010
-0.3010 LINKED IN 0.0000
-0.3010 MAIL </s> -0.3010
-0.3010 MANAGER </s> -0.3010
-0.3010 NEW TAB 0.0000
-1.1461 OPEN BLOG 0.0000
-1.1461 OPEN COMPUTER -0.2430
-1.1461 OPEN GIT 0.0000
-1.1461 OPEN LINKED 0.0000
-0.8451 OPEN MAIL 0.0000
-1.1461 OPEN SEARCH 0.0000
-0.3010 SEARCH </s> -0.3010
-0.3010 TAB </s> -0.3010
-0.3010 TERMINAL </s> -0.3010

\3-grams:
-0.3010 <s> BING </s>
-0.3010 <s> BROWSER </s>
-0.3010 <s> FILE MANAGER
-1.0792 <s> HEY BING
-0.6021 <s> HEY COMPUTER
-1.0792 <s> HEY GIT
-1.0792 <s> HEY OPEN
-0.3010 <s> NEW TAB
-1.0792 <s> OPEN BLOG
-1.0792 <s> OPEN COMPUTER
-1.0792 <s> OPEN GIT
-1.0792 <s> OPEN LINKED
-1.0792 <s> OPEN MAIL
-1.0792 <s> OPEN SEARCH
-0.3010 <s> TERMINAL </s>
-0.3010 COMPUTER BING </s>
-0.3010 COMPUTER BROWSER </s>
-0.3010 COMPUTER GIT HUB
-0.3010 COMPUTER MAIL </s>
-0.3010 FILE MANAGER </s>
-0.3010 GIT HUB </s>
-0.3010 HEY BING </s>
-0.7782 HEY COMPUTER BING
-0.7782 HEY COMPUTER BROWSER
-0.7782 HEY COMPUTER MAIL
-0.3010 HEY GIT HUB
-0.3010 HEY OPEN MAIL
-0.3010 LINKED IN </s>
-0.3010 NEW TAB </s>
-0.3010 OPEN BLOG </s>
-0.3010 OPEN COMPUTER GIT
-0.3010 OPEN GIT HUB
-0.3010 OPEN LINKED IN
-0.3010 OPEN MAIL </s>
-0.3010 OPEN SEARCH </s>

\end\
