Language model created by QuickLM on Sat Dec  3 19:03:27 EST 2016
Copyright (c) 1996-2010 Carnegie Mellon University and Alexander I. Rudnicky

The model is in standard ARPA format, designed by Doug Paul while he was at MITRE.

The code that was used to produce this language model is available in Open Source.
Please visit http://www.speech.cs.cmu.edu/tools/ for more information

The (fixed) discount mass is 0.5. The backoffs are computed using the ratio method.
This model based on a corpus of 18 sentences and 21 words

\data\
ngram 1=21
ngram 2=38
ngram 3=38

\1-grams:
-0.9488 </s> -0.3010
-0.9488 <s> -0.2368
-1.7270 BING -0.2492
-2.2041 BLOG -0.2492
-1.9031 BROWSER -0.2492
-1.5051 COMPUTER -0.2672
-2.2041 FILE -0.2983
-1.7270 GIT -0.2928
-1.3590 HEY -0.2492
-1.7270 HUB -0.2492
-2.2041 IN -0.2492
-2.2041 LINKED -0.2983
-1.7270 MAIL -0.2492
-2.2041 MANAGER -0.2492
-2.2041 MUSIC -0.2492
-2.2041 NEW -0.2983
-1.3590 OPEN -0.2613
-2.2041 PLAY -0.2983
-2.2041 SEARCH -0.2492
-2.2041 TAB -0.2492
-2.2041 TERMINAL -0.2492

\2-grams:
-1.5563 <s> BING 0.0000
-1.5563 <s> BROWSER 0.0000
-1.5563 <s> FILE 0.0000
-0.7112 <s> HEY -0.0000
-1.5563 <s> NEW 0.0000
-0.7782 <s> OPEN 0.0000
-1.5563 <s> TERMINAL 0.0000
-0.3010 BING </s> -0.3010
-0.3010 BLOG </s> -0.3010
-0.3010 BROWSER </s> -0.3010
-1.0000 COMPUTER BING 0.0000
-1.0000 COMPUTER BROWSER 0.0000
-1.0000 COMPUTER GIT 0.0000
-1.0000 COMPUTER MAIL 0.0000
-1.0000 COMPUTER PLAY 0.0000
-0.3010 FILE MANAGER 0.0000
-0.3010 GIT HUB 0.0000
-1.1461 HEY BING 0.0000
-0.5441 HEY COMPUTER -0.0792
-1.1461 HEY GIT 0.0000
-1.1461 HEY OPEN -0.2341
-0.3010 HUB </s> -0.3010
-0.3010 IN </s> -0.3010
-0.3010 LINKED IN 0.0000
-0.3010 MAIL </s> -0.3010
-0.3010 MANAGER </s> -0.3010
-0.3010 MUSIC </s> -0.3010
-0.3010 NEW TAB 0.0000
-1.1461 OPEN BLOG 0.0000
-1.1461 OPEN COMPUTER -0.2553
-1.1461 OPEN GIT 0.0000
-1.1461 OPEN LINKED 0.0000
-0.8451 OPEN MAIL 0.0000
-1.1461 OPEN SEARCH 0.0000
-0.3010 PLAY MUSIC 0.0000
-0.3010 SEARCH </s> -0.3010
-0.3010 TAB </s> -0.3010
-0.3010 TERMINAL </s> -0.3010

\3-grams:
-0.3010 <s> BING </s>
-0.3010 <s> BROWSER </s>
-0.3010 <s> FILE MANAGER
-1.1461 <s> HEY BING
-0.5441 <s> HEY COMPUTER
-1.1461 <s> HEY GIT
-1.1461 <s> HEY OPEN
-0.3010 <s> NEW TAB
-1.0792 <s> OPEN BLOG
-1.0792 <s> OPEN COMPUTER
-1.0792 <s> OPEN GIT
-1.0792 <s> OPEN LINKED
-1.0792 <s> OPEN MAIL
-1.0792 <s> OPEN SEARCH
-0.3010 <s> TERMINAL </s>
-0.3010 COMPUTER BING </s>
-0.3010 COMPUTER BROWSER </s>
-0.3010 COMPUTER GIT HUB
-0.3010 COMPUTER MAIL </s>
-0.3010 COMPUTER PLAY MUSIC
-0.3010 FILE MANAGER </s>
-0.3010 GIT HUB </s>
-0.3010 HEY BING </s>
-0.9031 HEY COMPUTER BING
-0.9031 HEY COMPUTER BROWSER
-0.9031 HEY COMPUTER MAIL
-0.9031 HEY COMPUTER PLAY
-0.3010 HEY GIT HUB
-0.3010 HEY OPEN MAIL
-0.3010 LINKED IN </s>
-0.3010 NEW TAB </s>
-0.3010 OPEN BLOG </s>
-0.3010 OPEN COMPUTER GIT
-0.3010 OPEN GIT HUB
-0.3010 OPEN LINKED IN
-0.3010 OPEN MAIL </s>
-0.3010 OPEN SEARCH </s>
-0.3010 PLAY MUSIC </s>

\end\